{"W1": [[0.01826044471601791, 0.23041421908151977, 0.20862474465391256, 0.22549006059959228, 0.07151653398896399, 0.10947617000167291, -0.11414856712145029, 0.08336456201515939, 0.16486617877296622, 4.7567283013378236e-05, 0.08016447975515972, -0.04701671575829038, -0.12650855980982337, 0.12538703817520083, -0.008524292913945923, 0.06810809556926778], [0.44774225233397097, 0.043572525251090594, -0.08589097840545687, 0.6409892219929214, 0.2847359936674919, -0.07210083858700561, -0.09639811223987342, -0.06651517593086202, -0.07422119454123727, 0.13950249874291348, -0.019666179317578317, 0.016314904830384364, -0.08408128015597824, 0.04945347635241301, -0.20556997739562166, 0.08169891352061132], [0.042440362761101115, -0.2129299859224549, 0.2328707426023116, -0.1926463971418436, 0.11117801082915317, -0.005435168388591424, 0.03173351539540946, -0.01796685384120699, 0.30859852215510847, -0.05013014958060743, -0.07831704334065409, 0.0021009884562349567, -0.03688810429660493, 0.025528979205410696, -0.041976971236681274, -0.098694412799236]], "b1": [0.19976843186317272, 0.0776855719299208, 0.10242774642037691, 0.3702584744112391, 0.2518046662027402, -0.02139877688306766, -0.010651834128060736, -0.03716550421654276, 0.1660948652384407, 0.03730689593166949, -0.04807799245874761, -0.014808292507449021, 0.0, 0.06650845419389563, 0.0, 0.042564891029869885], "W2": [[-0.23560080460985416, -0.016753668425031024, 0.3842562416759701], [-0.08589693651211293, -0.2559340000005789, 0.06586288400354844], [-0.26482841877464247, 0.1767030525444908, -0.2003403050867271], [-0.4582098730480375, -0.15582250397946262, 0.6333568854347177], [-0.33147626275341685, 0.05782301705438009, 0.22560239013792976], [0.13199794097632883, 0.09942465171293628, 0.1041536329681922], [0.08630714772728136, -0.12042426075094083, 0.03560473220090434], [0.08014798231834838, -0.09387416251656004, -0.05503374122437017], [-0.22063999526543404, 0.28649849785345166, -0.07584354553683299], [-0.09577233756330714, -0.15178609053937306, 0.0805674216844926], [-0.06398466941427919, 0.01573330538141739, -0.09847023480374197], [0.017296207172998946, -0.044305001093084766, -0.12402534975269079], [-0.13272840378781467, -0.11770203880226943, -0.020639905744054218], [-0.07058521721921619, 0.05590821004129489, 0.0845142056248343], [-0.07585232609792003, 0.10584029080951757, -0.044222552600815306], [0.016427160584627384, -0.06641094713214757, 0.11614534237441596]], "b2": [-0.9064635295311969, 0.15350549932377439, 0.7529580302074221]}